digraph Tree {
node [shape=box] ;
0 [label="Att_Score <= -0.114\nentropy = 1.502\nsamples = 285\nvalue = [82, 63, 140]\nclass = 1"] ;
1 [label="Att_Score <= -0.568\nentropy = 1.501\nsamples = 121\nvalue = [52, 22, 47]\nclass = 0"] ;
0 -> 1 [labeldistance=2.5, labelangle=45, headlabel="True"] ;
2 [label="Att_Score <= -0.614\nentropy = 1.465\nsamples = 47\nvalue = [25, 11, 11]\nclass = 0"] ;
1 -> 2 ;
3 [label="Att_Score <= -0.659\nentropy = 1.478\nsamples = 39\nvalue = [20, 8, 11]\nclass = 0"] ;
2 -> 3 ;
4 [label="entropy = 1.415\nsamples = 36\nvalue = [20, 6, 10]\nclass = 0"] ;
3 -> 4 ;
5 [label="entropy = 0.918\nsamples = 3\nvalue = [0, 2, 1]\nclass = -1"] ;
3 -> 5 ;
6 [label="entropy = 0.954\nsamples = 8\nvalue = [5, 3, 0]\nclass = 0"] ;
2 -> 6 ;
7 [label="Att_Score <= -0.295\nentropy = 1.445\nsamples = 74\nvalue = [27, 11, 36]\nclass = 1"] ;
1 -> 7 ;
8 [label="Att_Score <= -0.341\nentropy = 1.216\nsamples = 36\nvalue = [13, 2, 21]\nclass = 1"] ;
7 -> 8 ;
9 [label="entropy = 1.24\nsamples = 34\nvalue = [13, 2, 19]\nclass = 1"] ;
8 -> 9 ;
10 [label="entropy = 0.0\nsamples = 2\nvalue = [0, 0, 2]\nclass = 1"] ;
8 -> 10 ;
11 [label="Att_Score <= -0.205\nentropy = 1.552\nsamples = 38\nvalue = [14, 9, 15]\nclass = 1"] ;
7 -> 11 ;
12 [label="entropy = 1.581\nsamples = 19\nvalue = [7, 6, 6]\nclass = 0"] ;
11 -> 12 ;
13 [label="entropy = 1.462\nsamples = 19\nvalue = [7, 3, 9]\nclass = 1"] ;
11 -> 13 ;
14 [label="Att_Score <= 0.159\nentropy = 1.412\nsamples = 164\nvalue = [30, 41, 93]\nclass = 1"] ;
0 -> 14 [labeldistance=2.5, labelangle=-45, headlabel="False"] ;
15 [label="Att_Score <= 0.114\nentropy = 1.535\nsamples = 50\nvalue = [13, 14, 23]\nclass = 1"] ;
14 -> 15 ;
16 [label="Att_Score <= 0.023\nentropy = 1.471\nsamples = 42\nvalue = [9, 11, 22]\nclass = 1"] ;
15 -> 16 ;
17 [label="entropy = 1.397\nsamples = 24\nvalue = [5, 5, 14]\nclass = 1"] ;
16 -> 17 ;
18 [label="entropy = 1.53\nsamples = 18\nvalue = [4, 6, 8]\nclass = 1"] ;
16 -> 18 ;
19 [label="entropy = 1.406\nsamples = 8\nvalue = [4, 3, 1]\nclass = 0"] ;
15 -> 19 ;
20 [label="Att_Score <= 0.205\nentropy = 1.334\nsamples = 114\nvalue = [17, 27, 70]\nclass = 1"] ;
14 -> 20 ;
21 [label="entropy = 0.722\nsamples = 10\nvalue = [2, 0, 8]\nclass = 1"] ;
20 -> 21 ;
22 [label="Att_Score <= 1.409\nentropy = 1.353\nsamples = 104\nvalue = [15, 27, 62]\nclass = 1"] ;
20 -> 22 ;
23 [label="entropy = 1.37\nsamples = 101\nvalue = [15, 27, 59]\nclass = 1"] ;
22 -> 23 ;
24 [label="entropy = 0.0\nsamples = 3\nvalue = [0, 0, 3]\nclass = 1"] ;
22 -> 24 ;
}